{"generation":122660,"bestFitness":1842.8050506007744,"weights":[1.0524117946624756,0.709987461566925,-0.9991737008094788,0.5500483512878418,-0.008228423073887825,-1.2198739051818848,0.45618635416030884,-0.3418522775173187,0.5651850700378418,0.14113527536392212,-0.0853399708867073,1.807441234588623,-0.23572224378585815,0.4262467622756958,0.9750545024871826,0.05728594586253166,-0.5587348937988281,-1.4700498580932617,0.6981849670410156,-0.5827952027320862,0.09678374230861664,-0.9092628359794617,-1.7436240911483765,-0.11510705947875977,0.04914981126785278,-0.8746644258499146,0.1143198236823082,-0.02048550732433796,-1.299058437347412,-2.3315794467926025,-0.04946734383702278,-0.08624453842639923,0.03481801226735115,0.854016900062561,0.038514818996191025,-0.670961320400238,0.4508185386657715,0.32081201672554016,1.3437491655349731,0.9381799697875977,-0.6135539412498474,-0.9788495898246765,-0.09020884335041046,-0.2614998519420624,-0.7448552250862122,0.6231169700622559,-0.420603483915329,-0.191964790225029,-0.6978158950805664,-0.18672385811805725,1.6171876192092896,-0.5100070834159851,1.0790289640426636,0.27096250653266907,0.5466069579124451,-0.8495619297027588,0.3830283284187317,1.5860568284988403,0.05515754967927933,-1.1798441410064697,-0.303713858127594,-0.001476135104894638,-0.5399575233459473,0.6332042813301086,0.02361145243048668,-0.19604147970676422,-0.6029868125915527,0.7717113494873047,0.15443283319473267,0.3013762831687927,0.1205611452460289,2.4090473651885986,0.693180501461029,-0.3272341787815094,-0.6600888967514038,1.4141952991485596,0.015133572742342949,0.051230356097221375,0.7747693061828613,-0.4866090714931488,-0.09776753932237625,1.0430681705474854,1.2605458498001099,0.49097973108291626,1.315110206604004,-0.7630961537361145,0.035318318754434586,-0.3229897618293762,-0.2712087035179138,2.7509422302246094,0.042107339948415756,1.297217607498169,-0.2620195746421814,-0.8758330941200256,-0.439171701669693,-0.1664377748966217,-0.042222876101732254,-1.2026699781417847,-0.5622946619987488,0.6395381093025208,-0.02603195793926716,0.21311505138874054,-0.0053898305632174015,1.5609276294708252,-0.1546885222196579,0.9738731384277344,-0.3459949791431427,0.12495848536491394,1.4060078859329224,0.3270321786403656,0.12875008583068848,1.595121145248413,-0.47283822298049927,0.005098761059343815,-0.08495526760816574,1.0603574514389038,-0.05648673698306084,1.4555259943008423,-0.6522042751312256,-0.4815077483654022,1.5221389532089233,-0.8245800733566284,0.06089571490883827,0.38795700669288635,0.008754638023674488,0.02876305766403675,0.9925183653831482,-1.0019398927688599,0.9075765013694763,0.7533212900161743,0.07258028537034988,0.3444991707801819,-1.2999563217163086,1.199198842048645,0.37210825085639954,-1.0909098386764526,0.3463278114795685,1.3722114562988281,-2.9208133220672607,0.5731788873672485,-0.08184832334518433,-1.5929425954818726,0.5455792546272278,-0.9215854406356812,0.033413589000701904,-0.27169269323349,0.17339973151683807,-0.5999773144721985,-1.3322112560272217,0.9599568843841553,-0.22631675004959106,0.01730072870850563,-0.5043585896492004,-0.13525961339473724,-0.45049697160720825,-0.15799042582511902,0.46920621395111084,0.47581854462623596,0.8328947424888611,-0.06021710857748985,0.024125734344124794,-0.4187150299549103,-0.4152596592903137,0.3526819944381714,1.6341060400009155,-0.8540595173835754,0.0887756422162056,1.4938719272613525,-1.3556419610977173,-0.7480578422546387,-0.06637784838676453,-0.15641126036643982,0.34818804264068604,-1.4407501220703125,0.1877346932888031,1.6751402616500854,-0.9166635274887085,1.2444566488265991,0.714373767375946,-0.7071192860603333,-0.09759580343961716,-0.7364572286605835,-0.21660080552101135,0.2721019387245178,0.4821711480617523,-0.06738045066595078,0.438730925321579,-1.44188392162323,0.24138827621936798,0.07452374696731567,-2.9334447383880615,0.7105498909950256,-0.011862563900649548,0.25383278727531433,-1.5830966234207153,0.04437705874443054,1.7540960311889648,0.46537595987319946,-0.1933717578649521,0.7104135155677795,-0.26351428031921387,-0.46079716086387634,-2.232085943222046,-1.0177953243255615,1.2138408422470093,0.15242350101470947,-0.1707024872303009,-0.06997719407081604,0.02395072765648365,1.3479605913162231,-0.5229010581970215,0.963433027267456,0.6867866516113281,0.3528989851474762,-4.212626934051514,-0.06538181006908417,0.12044388800859451,1.6807172298431396,1.606458306312561,0.012260982766747475,0.393908828496933,-0.6404067873954773,0.03622918948531151,0.3127598762512207,0.6228126883506775,-0.7876855134963989,1.2770785093307495,-0.3177475929260254,0.07283734530210495,-0.8582497239112854,-0.39774277806282043,-0.8581830859184265,0.10093170404434204,-2.6790828704833984,-1.1719236373901367,-0.4178914427757263,0.18873371183872223,1.19698166847229,0.0360272191464901,-1.049727201461792,0.43075472116470337,-0.4424018859863281,-0.9033011794090271,0.31102171540260315,-1.6272162199020386,-0.3062446713447571,0.06368382275104523,-0.1429702341556549,-0.5229112505912781,3.4245316982269287,0.0648866519331932,-3.371447801589966,-0.18117700517177582,0.08037124574184418,0.9618610739707947,0.015473194420337677,0.09217344969511032,1.048409104347229,0.9027349352836609,-0.3460921049118042,-0.5214208960533142,2.2161824703216553,-0.8633551597595215,1.8515682220458984,0.5334591269493103,-1.6817682981491089,0.5124720931053162,0.25752031803131104,0.36463814973831177,1.1958637237548828,-0.12379936873912811,-0.6485893130302429,0.43783462047576904,1.4115713834762573,0.5098997354507446,-0.11200670897960663,0.00934407114982605,-0.11454646289348602,-0.9423238635063171,0.4998154044151306,-0.3831653594970703,0.3822651207447052,0.04826555773615837,-0.8215987086296082,0.2488681524991989,1.1172151565551758,-0.3869926631450653,0.9758769273757935,0.3351304233074188,1.5842853784561157,0.3599976897239685,-1.0097051858901978,-0.7997691631317139,-1.4061055183410645,1.1535357236862183,-0.4543571174144745,-0.3539944887161255,0.47541069984436035,-1.8739348649978638,-0.10751230269670486,-0.5677576065063477,-1.5520483255386353,-0.1970454454421997,-0.37849146127700806,0.7433671355247498,0.979338526725769,-0.06966269016265869,0.5780322551727295,0.38309621810913086,0.6127324104309082,-1.5380682945251465,0.02870880253612995,-0.5599651336669922,1.3721528053283691,0.2963990271091461,-1.031008243560791,-1.4646520614624023,-0.23969203233718872,-0.00824649166315794,1.1026194095611572,-0.5509696006774902,-0.5750156044960022,0.10525408387184143,-1.3340593576431274,0.5841139554977417,-0.8514890074729919,-0.08190402388572693,-0.2764720618724823,0.880408763885498,1.5889174938201904,-1.2299772500991821,-0.4950030744075775,0.7687086462974548,-0.14709296822547913,2.5485973358154297,0.12601324915885925,0.8970476388931274,-1.233783483505249,-1.4002325534820557,0.2034035623073578,-0.2518540620803833,0.3514688014984131,-0.02983483113348484,1.955390453338623,-0.05476571246981621,-0.39644771814346313,-0.9011325836181641,-0.22124497592449188,0.7085054516792297,-0.006959599908441305,0.24079343676567078,-0.034232061356306076,-0.27143964171409607,-1.0079960823059082,0.46826598048210144,0.07915382087230682,0.5304545164108276,-1.9526313543319702,-0.5661274194717407,0.8339483141899109,1.6651610136032104,0.6028897762298584,0.9466646909713745,0.9534425139427185,0.25758102536201477,0.49598291516304016,-1.1700713634490967,-0.6261749863624573,-0.06287001073360443,-0.03322097659111023,0.19593963027000427,-0.23750954866409302,-1.9237635135650635,-1.6172348260879517,-1.930721402168274,-0.5498995780944824,2.8170759677886963,2.618891954421997,-0.8367903232574463,-1.112197995185852,-0.1146983727812767,0.09595277160406113,0.1606842428445816,-0.687411367893219,0.4901445209980011,-0.6707472205162048,-0.7004014253616333,-0.03295367956161499,-0.3329866826534271,0.3946760892868042,1.0426580905914307,-0.8936945199966431,-0.08559812605381012,-0.16985364258289337,-0.5754735469818115,0.39967048168182373,0.607903778553009,-1.1550637483596802,0.3935421109199524,-0.27926552295684814,-0.017896298319101334,0.10594936460256577,-0.877701461315155,0.16713793575763702,1.8960814476013184,0.3630276024341583,-1.8297635316848755,-0.008186855353415012,0.1828821897506714,-0.007530502509325743,-0.19238746166229248,0.2830997109413147,2.895678997039795,0.1029876098036766,0.5390875935554504,-0.36468663811683655,-0.6503171324729919,-0.9015518426895142,-0.1966334581375122,0.1035720556974411,-0.6403406262397766,-0.9644309878349304,-1.6299080848693848,0.05517687648534775,-0.9119662046432495,-0.0519498735666275,-0.07848712801933289,-0.11684571206569672,0.04253339022397995,-0.19864791631698608,-0.09519631415605545,0.7034993171691895,-0.11275001615285873,-0.24615196883678436,-0.7904325723648071,-3.2470128536224365,-0.37177178263664246,-4.190031051635742,1.2233978509902954,0.6241990923881531,0.01069046463817358,0.28483542799949646,0.04692026227712631,1.7821706533432007,-0.20218640565872192,-1.0378013849258423,0.24936510622501373,0.2369716614484787,-0.7972023487091064,-0.3657253384590149,0.631454348564148,-0.23111021518707275,-3.0908749103546143,-0.24984624981880188,-0.2627519369125366,-0.15198473632335663,-0.1388402283191681,-0.8502906560897827,0.5967522859573364,0.4926969110965729,1.1656984090805054,-0.1307547241449356,0.5395774245262146,0.0409492552280426,0.47565892338752747,0.08806896954774857,0.5951818227767944,-0.3955637216567993,0.09007174521684647,0.12590095400810242,-1.0231865644454956,-0.35633864998817444,0.6261969804763794,0.0894017294049263,-0.4737381041049957,-0.5670470595359802,0.4264322519302368,-0.9239135980606079,0.44003328680992126,0.21820329129695892,-1.5976719856262207,1.263467788696289,0.6884709000587463,0.29223737120628357,-0.04847453534603119,-0.022873127833008766,1.2585270404815674,0.157572403550148,-0.6743506789207458,-0.867344081401825,0.6070097088813782,0.9016352295875549,-0.7191357016563416,1.2580935955047607,-1.5439825057983398,0,0.08547063171863556,0.4497605562210083,0.7542380690574646,-1.2541688680648804,-2.1683623790740967,-1.3966866731643677,0.9890838861465454,0.7005510926246643,0.02143055573105812,0.23103907704353333,0.31594300270080566,-0.15278159081935883,-0.22300438582897186,0.19193331897258759,-1.0027238130569458,1.3029817342758179,-0.00487175490707159,0.26910752058029175,0.04762167111039162,0.47731447219848633,1.60158371925354,0.7762647271156311,0.6747506260871887,0.003600794356316328,0.01928229071199894,-0.6468005776405334,0.8811280727386475,-0.049974385648965836,0.7372026443481445,-0.24509389698505402,0.08711108565330505,-1.4281880855560303,2.274693489074707,-0.15089550614356995,1.6103663444519043,-0.11404681205749512,0.6616363525390625,-0.17864593863487244,0.9045129418373108,0.3386380970478058,-0.4012294113636017,-0.1257493793964386,-0.07032006233930588,1.183280348777771,0.3915059268474579,-0.011612789705395699,-0.34907159209251404,1.7364280223846436,-0.03518974781036377,2.727660894393921,0.5996775031089783,1.1197329759597778,2.2999322414398193,-0.09259319305419922,-0.29557937383651733,-1.9402846097946167,0.6723414063453674,0.38695213198661804,0.23694872856140137,1.3398103713989258,-1.290354609489441,-1.2052844762802124,0.9734412431716919,0.3310602009296417,0.9509025812149048,-0.4404304623603821,0.724279522895813,-0.21110573410987854,-0.951004147529602,-0.026193352416157722,-0.33429038524627686,0.0072208005003631115,2.0041873455047607,0.12571167945861816,0.061528872698545456,-0.12370418757200241,0.9480375647544861,0.09066317230463028,-0.4893803894519806,0.5144869089126587,-0.19245262444019318,0.7351217269897461,1.11704421043396,0.7142453193664551,-1.0268574953079224,-0.6766185164451599,-0.22538116574287415,0.15212291479110718,0.10459476709365845,0.6067920923233032,-1.1281471252441406,-0.7995275855064392,-0.10968099534511566,0.12809260189533234,0.8803038597106934,-0.15393874049186707,0.2222568690776825,0.9582768678665161,-1.3696768283843994,0.2525167763233185,-0.14139772951602936,0.9150334000587463,-1.0396326780319214,0.47821101546287537,-0.15224972367286682,-1.2321540117263794,-1.4229719638824463,0.6421146988868713,0.14583253860473633,4.1042160987854,0.3338403105735779,-0.2395552098751068,0.7098693251609802,-1.2232320308685303,-0.4745314121246338,0.2906355559825897,-0.8340243697166443,0.08435409516096115,-0.5582631230354309,0.23302210867404938,-0.5398489832878113,-1.5533032417297363,-0.151967391371727,1.634742021560669,0.5155309438705444,-0.9745098352432251,-0.36272868514060974,0.6863371133804321,-0.003708438016474247,-0.3855328857898712,0.01630544662475586,-1.4047573804855347,0.009933620691299438,-1.3446704149246216,-3.841733455657959,-0.8862094283103943,-2.0503687858581543,-0.04628131911158562,0.045662835240364075,0.841421902179718,-0.07881172001361847,2.5906810760498047,-1.3520174026489258,-0.05307924747467041,2.443281888961792,-0.11525750905275345,3.2991397380828857,0.2888508439064026,0.07659472525119781,-3.6421377658843994,-0.3652443289756775,0.9187440276145935,0.557938277721405,2.2899599075317383,-0.09962102025747299,-0.19748927652835846,-0.7293927669525146,2.9399771690368652,-1.9789220094680786,-0.35223785042762756,-0.586650550365448,0.9493821263313293,-1.261946201324463,-0.7376376390457153,-0.29976868629455566,0.04222613200545311,0.37552645802497864,0.22373910248279572,-0.6508945822715759,-0.3287350535392761,0.08442667126655579,-0.5490202307701111,-0.15611663460731506,0.466294527053833,0.07833696901798248,-0.2954491674900055,0.9788786172866821,0.3878359794616699,-0.1378975361585617,-0.4804117679595947,1.257323980331421,0.4694608151912689,-0.6340980529785156,2.450744152069092,0.6951205730438232,-0.5127612948417664,-2.5190768241882324,-0.0978289544582367,-1.1174829006195068,0.7052603960037231,-0.12039870768785477,-0.13177859783172607,0.3151921033859253,-0.6367527842521667,0.5869717001914978,-1.0592155456542969,-0.5275241732597351,0.061001576483249664,-1.2495410442352295,0.15922723710536957,0.8122063279151917,-0.9156922698020935,1.532873511314392,1.1631450653076172,0.61313396692276,0.8165313005447388,-1.2406400442123413,-1.499668836593628,0.0415000282227993,-0.8400688171386719,-1.793156385421753,0.387045681476593,-1.7011545896530151,0.6369088888168335,0.09078137576580048,0.9957336187362671,-0.3002031147480011,0.2654244899749756,-0.4389001429080963,-0.2869580090045929,0.38099122047424316,-0.1714814156293869,0.5889250040054321,-0.2127661556005478,-0.923063337802887,-0.3617304861545563,-3.3483541011810303,-0.838034451007843,0.9743202328681946,1.0282504558563232,0.549720823764801,2.4119791984558105,1.0228170156478882,0.2878212034702301,-0.922973096370697,-0.23293636739253998,-0.8233913779258728,-0.6626952886581421,0.012443721294403076,1.3997411727905273,0.2838789224624634,-0.023141972720623016,0.7230551838874817,-0.698734700679779,1.0130690336227417,-2.0180583000183105,-0.2965535819530487,0.07988856732845306,0.595268726348877,-0.2871308922767639,-0.30791163444519043,-2.0715956687927246,-0.014235521666705608,0.30132362246513367,-0.289627343416214,0.1287449449300766,-0.52985018491745,0.42875927686691284,0.84794682264328,0.6155717968940735,-0.4683467149734497,-0.15728053450584412,-0.6998278498649597,0.6589223146438599,0.8437774777412415,-0.42864546179771423,1.436645269393921,-0.8568430542945862,0.42662951350212097,-0.08963222801685333,-0.6199460029602051,0.12527191638946533,1.083186149597168,0.1477111577987671,0.012035589665174484,0.07240302115678787,-0.9984058141708374,0.9400224685668945,-0.01925300806760788,0.050955746322870255,0.37332072854042053,1.0910835266113281,-0.7567741274833679,-0.09433839470148087,0.4353505074977875,0.4235967695713043,-2.0816807746887207,0.2983296513557434,-1.0829566717147827,0.37962257862091064,0.17760056257247925,0.9818359017372131,-0.5471782684326172,0.21464484930038452,0.032835010439157486,-0.06320066750049591,0.6937366127967834,-0.3716101348400116,-0.6685627102851868,0.1167597696185112,0.9595988988876343,-0.4861852824687958,-0.6132858395576477,-0.3179571330547333,-0.3405858278274536,-0.9474730491638184,-0.24043704569339752,0.7104139924049377,0.0700455978512764,0.3878290355205536,-0.34581977128982544,-0.8577378988265991,-0.3320644497871399,-0.0284989383071661,-0.8407474756240845,0.8361086249351501,0.9616602063179016,0.044159840792417526,0.8661030530929565,0.6614058613777161,-0.21388563513755798,1.5098192691802979,-1.180828332901001,1.3270686864852905,0.3055127263069153,-2.4496188163757324,-0.8929962515830994,0.7507632374763489,0.6688369512557983,-1.8287787437438965,-0.04476965591311455,-0.23744991421699524,0.3984537720680237,-1.1387113332748413,0.291230171918869,-0.2532561123371124,-0.35876157879829407,-1.0960067510604858,-0.4569837749004364,-0.1871497929096222,0.6490370035171509,1.9166895151138306,0.14245733618736267,-2.2962992191314697,-0.6153430938720703,0.3751068711280823,-0.2790435254573822,1.477954626083374,0.06821563839912415,0.6262593269348145,0.7564544677734375,2.5980191230773926,0.12522098422050476,0.44395211338996887,-0.1342228502035141,0.9116578102111816,0.22948148846626282,-0.24558289349079132,-0.7848010659217834,0.4084666073322296,-0.5395119190216064,-0.8123347759246826,0.5732223391532898,-0.1051424965262413,-0.2502921521663666,0.09353835135698318,0.10807521641254425,-0.04060457646846771,-0.37047889828681946,-0.010715956799685955,0.43315309286117554,-0.21851176023483276,3.9768035411834717],"layers":[20,24,12,5]}